1.766544206280331153e+00,1.234854023192909905e-01,1.053469140057524678e-01,-1.227538184870521354e+00,2.568128180873449740e+00,5.268876773861652651e-01,3.991961846615219578e-01,-4.545925108806693760e-01,-7.385006237369716731e-01,6.091432296834708993e-01,1.116981499881679607e+00,-2.179381577308045603e+00,6.857490203872032009e-01,2.029718070685901488e+00,-9.762369131427333091e-01,-1.150520431297045176e+00,3.169976234935985460e+00,2.572322882765092356e-01,-1.284016182485617552e+00,-6.633164964746162129e-01,1.800318518741516050e+00,4.019786833969622997e+00,-1.272968777794740269e+00,-5.060403667684902906e+00,3.970152622375188400e+00,-2.156719362656725203e-01,6.882627168032138254e-01,2.035031551987068976e+00,6.410191065509611708e-01
-1.963358947056579540e+00,-1.276243191298963575e-01,1.196715147248802680e+00,-1.725695439149618204e+00,-2.722914054592820321e+00,-1.798780328367887427e-01,-1.590434099500643184e+00,-7.030977606575143923e-01,-5.754554849455725263e-01,-1.384804121250005515e+00,-2.823121346454769975e-01,-1.596212545596980226e+00,-2.363206903402606418e+00,-3.023927079726432265e-01,-3.291995890102484834e-01,-3.678072161304949628e+00,-1.313789618332842801e+00,7.019934665149144548e-01,5.465881503715143142e-01,-1.318647679817969820e+00,-1.317983899693923266e+00,-2.726078631535852059e-01,3.117464242419110132e-01,-2.337510861603838974e-01,-1.905169061125532526e+00,-2.835328894343355888e+00,-1.930313964524401182e+00,-1.212762762299680191e-01,-9.233998347030671905e-01
-8.051892962465933001e-01,2.881439571101692465e+00,1.125532879697463740e+00,2.909069766209426700e+00,-1.890074539534739362e+00,2.153123592348781479e+00,3.275982059188114803e+00,6.741212487827374922e-01,1.336172029701164998e+00,1.173248629808762766e+00,-7.857171684623061036e-01,3.885673108285027766e+00,-3.239015611942618111e+00,7.201576988087000641e-01,-9.591094972046028122e-01,1.977641631118320253e+00,1.158619461197533340e+00,2.255977181642688567e+00,8.407000805340707483e-01,-1.353999428038727304e+00,5.404630835493517971e-01,-1.117563838338766713e+00,8.731600954130162018e-01,-8.315006109302869319e-01,3.775973843470099123e+00,9.472332457356353874e-01,-2.089211759388794221e+00,5.690856433879857290e-01,-6.644611617140368243e-02
9.677164530578590274e-01,-8.550017985829254374e-02,-1.800221111790756723e+00,1.015626522826388989e+00,-1.825033171361008177e+00,3.671727866320257938e+00,-2.381503704616561912e+00,2.029262471374072341e+00,4.583827903591187747e-01,5.124798241454856296e+00,1.728807602028664459e+00,-2.631724298090534653e+00,-5.077109818012133235e-01,-9.327643329116310777e-01,1.323902307270995893e+00,5.104103767845450390e-01,-9.222656748721501652e-01,1.281964676211300835e+00,-1.100761138174681797e+00,5.131364058519769511e-01,1.501662681454819515e+00,7.691779571144679029e-01,1.630882320640144822e+00,-1.363245435230152625e+00,-2.315441085352767381e+00,3.850318699205829809e+00,-2.488765313840218263e-01,-7.371716280202135207e-01,7.532011322696670064e-01
-6.505941739127921730e-01,3.217555671656170957e-01,-5.598292963108447040e+00,3.118786482111495673e+00,4.372863317159997543e+00,-1.851974206410216484e+00,1.282476222559811418e+00,-1.279401434717004848e+00,2.497264132232877909e+00,-2.153555473461713776e-01,3.433035494624520068e-01,7.662516236630768640e-01,-2.671939748093901557e+00,1.941988863577440272e+00,2.874735499601512423e+00,-1.578700680733876149e+00,8.498944241603449690e-02,3.141248997618422689e-01,2.392087373589045496e-01,1.686526186597334220e+00,1.382100570301618148e-01,1.764357340592194845e+00,4.885150737910083640e-02,7.028449658964797120e-01,-1.090086575907929012e+00,3.695202066106041405e-01,-7.531267884884458308e-01,-1.413551505615832315e+00,2.765354188268815544e-02
2.709077954979946856e+00,-7.209220738824272112e-02,-7.669233460563604776e-01,-1.112415470804295703e+00,5.963723020365053751e-01,1.414753894776093590e+00,1.483971340835215758e+00,-5.736279074385969290e-01,-2.650332755212129188e-01,1.623042800287706200e+00,1.579733880295641768e+00,3.696839549350294352e+00,-5.609147339376664432e-01,-1.941161749572013762e-02,-1.483119395832836140e+00,2.008094004840161428e+00,-1.299352442022599030e+00,-2.822259952400890004e+00,1.839854780305707926e+00,6.500586548838729328e-01,3.707730685066672915e+00,5.038481864215389461e-01,6.852395550930968637e-01,-1.333567352258653527e+00,-2.161758786760506368e+00,-3.323738828025800451e+00,2.948544149045900120e+00,-1.514072372685420831e+00,-1.383752801730332882e+00
9.454044373857086736e-01,-2.797134563261919338e-01,1.177151488202600627e+00,-9.326145938915911815e-01,1.911997891610722311e+00,-2.862867790043529315e+00,2.403884973555154847e+00,1.528307424363409162e+00,1.545003213368405071e+00,-1.005956220430506420e-01,-2.425886950930137065e+00,-4.584464738505487219e-02,2.805592213111194777e+00,1.119645587922493801e+00,-8.061938394590796308e-01,1.742519742334716737e+00,1.196649753681467421e-01,1.582929027120354881e+00,1.797428587543487222e+00,-2.088428719488772067e+00,-1.420566809435809041e+00,7.122591049532597252e-01,5.625259611187588327e+00,-2.470075049278301460e+00,-2.891558530375080149e+00,1.712071520513558376e+00,-4.111175657678499129e-01,-5.619575725555536749e-01,1.374053765657613280e+00
7.030604058758984642e-01,-4.697738209980048651e+00,-6.485376266695788150e-01,4.959228884674073967e+00,-2.562795072827051879e+00,-3.106992303154031410e-01,-6.749393250749448347e-02,1.083226912774646111e+00,-1.693731095499872163e-01,-8.963133498744524363e-01,-2.238440213055679084e+00,1.888923624210588903e+00,2.928496387667946510e-01,-1.799996963233714498e+00,1.480596865072151491e+00,-4.291059733879089566e-01,1.290157115850547376e+00,-2.836655113240977411e+00,3.833571207960275173e-01,7.572168013140854192e-01,-1.223429236393194897e+00,7.172449492768119272e-01,7.131352928559260285e-01,-1.785568678176057134e+00,9.651737465812004757e-01,7.325823397289502603e-01,3.560674430969686277e+00,2.482341058889624197e+00,2.066938630629259865e+00
-2.160725655982169258e+00,-2.179476263449413587e-01,1.461269128419190322e+00,-1.956969879671302648e+00,-2.241555770840542028e+00,-1.154170547393952528e+00,-1.601630354227957964e+00,-1.421879881895180553e+00,-1.549172539357470457e+00,-1.116199274303971922e+00,-4.949124033347618995e-02,-1.004881976345528782e+00,-2.268640781941022144e+00,4.288001269105947699e-01,-5.674474365323107367e-02,-3.446713048892941611e+00,-1.775058865608276193e+00,6.950533924253038398e-01,5.478857250833044645e-01,-9.159893356748129989e-01,-3.655787702529489924e-01,-2.106261903600783331e-02,6.000082717151102862e-01,3.476682756319072198e-01,-9.023572957259761163e-01,-2.560195114577327402e+00,-1.402125999837829706e+00,-4.278164285442194181e-01,-9.106270526655179109e-01
8.756870315552296447e-01,-2.034018982767422101e-01,8.887030741981527537e-01,-2.381932100811368525e+00,-6.382737062349138624e-01,-2.121395659519273114e+00,2.851356998564337886e+00,1.814954496317910504e+00,1.415513522216493847e+00,-2.560279692900228610e-01,1.417404702454584609e+00,-2.816077703495051265e-01,-8.280882456710739747e-01,-9.529103100079058253e-01,5.846499763390217153e-01,-2.040033679513009457e-01,2.857783891684140265e+00,-9.537672998939282776e-01,-4.283772088195823002e+00,5.570364469543211072e+00,1.035779465252715026e+00,-3.186844214147031007e+00,2.342470735232503376e+00,3.575681306767814482e-01,8.648159393990683119e-01,9.193212562097610174e-01,6.058082669189275293e-01,-3.639141704420336132e-01,5.281505673420278102e-02
-1.294028091624642718e+00,1.790874861860070943e+00,-4.163394591827220381e+00,2.924133247240547018e+00,-9.998338227404502954e-01,-8.085957143641112621e-01,3.672547333921414303e-01,2.764531275444263692e+00,-1.714175447712244393e+00,-1.204723623024011314e-01,-5.593144991729677162e-01,-2.349153143185709780e+00,2.635035604167769829e+00,3.112345341882463146e+00,-5.347680330442936558e+00,5.980787452830215178e-01,1.250918962956253599e+00,-1.213480579751922361e+00,-3.777752292761150654e-01,-2.093206569188051924e-01,1.655567572803921861e+00,-2.393559314567561991e+00,-4.589541594113615286e-01,1.216075097157710339e+00,-6.030934025370171536e-01,-4.328271690360160906e-01,8.407308763546053054e-01,8.143134629686197279e-01,9.071808836415509725e-02
1.168181095105716993e+00,8.785153665845962800e-01,3.639051681223073875e-01,6.316302404055160746e-01,2.523954175169961012e+00,1.564068385025531471e+00,-5.212814339523006879e+00,3.682110241079906032e+00,1.564235111966338465e+00,-2.700624801787697926e+00,3.045460529990221543e-01,3.434819324679176500e+00,8.924535673588814833e-01,-1.127404751154289508e+00,-9.510837598156072215e-01,9.158032895149141872e-01,3.099310341598697782e+00,2.845091723892778646e+00,-1.716713613296097618e+00,1.957762800109767165e-01,3.503383322933746324e-01,1.789287684659381261e+00,6.850036719077935432e-01,2.260762481748278763e+00,-5.169360619790787092e-01,-1.382860935617049591e+00,1.084386778990241718e+00,5.086582565989551663e-02,3.305765230441670144e-01
-2.342467733085728254e-01,1.530037365746758637e-01,-1.501385699187635980e+00,-7.798625074599320195e-01,-1.088374703109204367e+00,-9.619425149738025649e-01,2.155862030888125336e+00,1.667546638774207501e+00,-3.042732520421818736e-03,3.380453905274050541e+00,-2.938740853614629778e+00,-1.518874865728314871e+00,1.273370807945201966e+00,-1.193971693369692222e+00,1.129926514136894600e+00,3.688759253970549601e+00,-3.204155490718055277e-01,1.852276159943555989e+00,-8.034650406516595789e-01,1.279328574788897832e+00,-2.446360785902764512e+00,3.620848480329607710e+00,-1.396589225390508560e+00,2.037883132899402927e+00,2.003869034558074524e+00,-3.043522345853852507e+00,1.682275565514556703e+00,-7.095248549862311904e-01,-1.456812988751173599e+00
-1.565213259751684904e-01,-1.878720569376733263e+00,1.434302277920632696e+00,1.302180151554422016e+00,1.286979028696164873e+00,2.813002343633334235e+00,5.269949253098979991e-01,-5.912992937159194717e+00,-4.607786663249953396e-02,3.047669060347219627e+00,-2.247795673961565655e+00,7.695150868832556501e-01,3.840611789976386969e+00,7.436179780684429863e-01,-5.917043013586787970e-01,-9.571040770515786278e-01,3.454650157891046458e+00,4.739123455581953914e-01,-1.499852275303652949e+00,2.792207814262719356e-01,4.575456046300777069e-01,-9.316650644167905337e-01,1.022377070654460374e+00,2.451169034600895191e+00,-5.627385885757438810e-01,4.188319020666151360e-01,-3.986008085448630167e-01,-1.005782308795341251e+00,-1.622884721285362319e+00
-1.194551281021059896e+00,2.039331861321914019e+00,-1.723150242542014432e+00,-1.909180055301416434e+00,1.653406053643831086e+00,-2.502493358953489788e-01,-1.251631456706769452e+00,-2.152699760296996612e+00,3.801174182011017422e+00,4.097677467705653220e-01,-2.622592019394996310e+00,1.091582701737192629e+00,2.176250242748804187e+00,-2.310267870724888706e+00,4.792858102668158815e-01,1.858066082774727290e+00,-3.279413328366250102e+00,1.160182013602425177e-01,-1.675999127811989897e+00,-5.897450379353683658e-01,2.684126723970498674e+00,-2.383876324658545265e+00,-1.407950176113947016e+00,-1.008679733896568953e+00,1.182973093430909506e+00,1.337614374159636021e+00,2.446230103394528399e+00,3.375546739310736566e+00,2.525452198591556119e+00
1.064509640115626876e+00,-4.905975796210048756e+00,2.261209988426652995e+00,1.927316404201669053e+00,2.862305168378644016e+00,-6.573980496703042409e-01,1.988058376593662968e-01,2.509039721679097834e+00,5.582943203312902281e-01,5.668345774934953063e-01,1.111542482722798875e+00,-9.984072680148842194e-01,1.777043363167630119e+00,2.412400133833003224e+00,1.320648395430756183e+00,9.435175445230179481e-01,-3.082740092599839166e+00,2.183782583907749153e+00,1.696272129652343974e+00,1.065216559255552919e+00,2.796014792444888819e+00,-2.303330614805323417e+00,-6.547115422211129410e-01,1.427219927727924942e+00,2.355887060981027847e+00,-7.239060634759600932e-01,-1.335727972226414595e+00,5.449415161695021492e-01,-1.122488670209030426e+00
6.828275535512484673e-01,2.720597130183849188e+00,-5.956982390787243231e-01,2.407602837067821078e+00,2.200362804128880967e+00,-1.066736044068412603e+00,2.894627510464067299e-01,-1.518949457532758451e+00,-3.581042449400439143e+00,4.872859717340902730e-01,3.887883123368210736e+00,5.069366157294123987e-01,2.616710343714053977e+00,-4.584739685832063927e+00,-1.167203833262417501e+00,8.014578690677093276e-01,-1.351141870712719184e+00,5.321416064729270756e-01,1.864129665900090771e+00,2.925967864000249552e+00,-2.122748685680734493e+00,-3.176194318229347974e-02,1.569424790855358021e+00,-4.206695647018503514e-01,1.804802055692342089e+00,6.076180357208730287e-01,-7.456665217896212283e-01,1.285910587470213473e+00,1.587270073614572286e-01
4.859501515772213232e-01,-6.170118328567640864e-01,6.381315113183086973e-01,7.133690612431777822e-01,-2.206664773714038130e+00,2.644901213323900269e-01,3.716976784368728470e+00,-2.889055248647438567e-01,2.882844492931280200e+00,-2.887651221252385714e+00,2.207351048277886196e+00,1.762762031329652423e-01,2.145723437570954850e+00,-1.168422350777691632e+00,-1.945615202355254869e+00,-3.249554526393215181e-01,-1.375397384508673659e-01,2.375160384540794034e+00,7.011925572048240962e-01,7.761979848899630552e-01,1.138033471703640220e+00,2.917071158690821786e+00,-4.004519031492081993e+00,6.388115932041540379e-01,-2.086246440426657411e+00,3.336389500502633609e+00,5.343303793742284480e-01,-9.602306769638907502e-02,-9.700063956909468210e-01
3.219828988576685980e+00,2.121834481786295079e+00,3.008983674153490995e+00,1.615927551446536992e+00,1.552867668984843297e+00,-3.451825479380890016e+00,-1.268170994250472861e+00,6.953375071881464642e-01,-8.380373607324004270e-01,2.838473030650695783e+00,-2.826608596671225104e+00,1.168091859527367493e+00,-1.354642416581623987e+00,5.395866090936728421e-01,-1.607931763410479942e+00,2.581076046231681187e-01,-8.695488908495582203e-01,-2.830849967597464101e+00,-1.322962228715026445e+00,8.551636698858632313e-01,-7.581745311114794494e-02,1.273377014305720811e+00,-3.118024155136964293e+00,1.109412701059286688e+00,-1.145990538344105580e+00,2.884196065352467642e+00,-1.488344524413537151e+00,2.449595467343786831e-02,1.625520629815040141e-01
8.035523011928573656e-01,2.014322492898716899e+00,-6.076872082520387019e-01,-1.343623101024410182e+00,1.813775245962564897e+00,1.273178907975638374e+00,2.157054226490246585e+00,3.248117332773124311e+00,-2.439877163233634683e+00,1.024700282006645036e-01,-1.967077453293847311e+00,-2.040477395386646187e-01,1.417142872906969053e+00,-2.511258558130053942e+00,3.733043132554533905e+00,-2.304231765080661631e+00,2.893000951084000683e+00,-1.028191236850859003e+00,3.162278314437229287e+00,-2.020037723172162014e+00,2.307499161539499077e+00,-1.599867387519566586e+00,-1.554895972101310475e+00,1.532701606977040498e+00,2.704235843129798034e-01,1.499342404668825957e+00,4.563922756420472626e-01,-5.592211851743622564e-01,-4.110384242491028628e-01
3.328253622102841369e+00,2.458605366484138965e+00,-9.025394647958950856e-01,7.561295077869495396e-01,-1.200398821218879419e+00,1.690428346864216058e+00,1.038485263851764984e+00,-2.939605312092864464e-01,-2.151931775461925600e+00,-2.412036665866172047e+00,9.329485909791794818e-01,1.376288120588063046e+00,2.843142363781183235e+00,3.638288789806836565e+00,4.011678871829855275e+00,1.494197439821257634e+00,-1.989309989344736795e+00,-5.759005691335219446e-01,-3.687282296587113262e+00,-1.218382030629335144e+00,-1.764288920312702347e+00,-6.386466045237770839e-01,-1.108057376130827110e-01,-4.227073355183409986e-01,-4.014436601484971945e-02,4.699522748889196633e-01,-9.399917950737184114e-02,-1.032807047950769826e-03,-4.120310738431277597e-01
-4.229588929305239553e+00,-1.352712308948452513e+00,1.437822689388431385e+00,7.397661159682833443e-02,2.977131022275505856e+00,1.782991974628778786e+00,1.125797649357752839e+00,1.854372774903169652e-01,-2.885664455835657449e+00,-1.566699584493715269e+00,7.483993891145599431e-01,-4.143277018800211042e-01,-1.483621012360382796e+00,-2.218797226554433677e-01,7.261449467810279224e-01,5.351668911254789052e+00,6.373731475434222249e-01,-2.319197212914283046e+00,-1.699618798970726541e+00,-1.803361910907446963e-01,1.044954203256120540e+00,1.507211951858291599e+00,-1.618744522288329546e-01,3.637190744402397091e-01,-1.790132767838109595e+00,1.993245142345439147e+00,-1.591272826944696295e-01,9.094711605470101601e-01,-1.208624065718078358e-02
-2.702991433925816533e-01,-3.122385816765258060e+00,-1.971519692008859126e+00,-2.279295266198166026e+00,6.977925647375455842e-01,-2.200270538492031580e+00,-1.019416476795091064e+00,-1.288667483446722939e-01,-1.928625890481865390e+00,1.551943493645037364e+00,1.776064748302474738e+00,3.079340309742601089e+00,-4.609102959268327471e-01,4.716817395523420497e-01,-1.061963738150629055e+00,8.957253187715192855e-01,1.027516904029246669e+00,1.910293408649468727e+00,-5.146121941586363491e-01,-2.228602867007281052e+00,-2.381764527122081088e+00,-2.398506066798093972e+00,-2.321721873782939483e+00,-1.189809131712619816e+00,1.224027082817110701e+00,3.013691223620031057e+00,2.264907862752095102e+00,-2.919161390306462600e+00,1.145688341386291720e-01
1.052472780749866388e+00,9.107102989812949634e-01,4.997831407393226733e-01,-2.000687240511606291e+00,1.651479688273864932e+00,3.985617702850054123e+00,-5.013472990923719536e-02,1.769060969934506122e-01,2.559368176276461071e+00,5.827904262736282454e-02,6.509505216640567582e-01,-1.155681360514957179e+00,-6.106570126014803090e-01,3.050950444719012111e+00,-8.227673050415791334e-01,1.036220419725790931e+00,4.024695327218963392e-01,-2.543938587712633037e+00,3.812698562398780133e+00,2.518885069753700190e+00,-4.367937466085538567e+00,-5.134319766019488362e-01,-4.676028801546428526e-01,1.880578713053827844e+00,1.260056334034826531e+00,1.899727547626454793e+00,2.610977144459142529e+00,1.175746152221369689e+00,1.837021749351580802e+00
-1.557419437678494445e-01,-7.309939151737794294e-01,-1.367119736535428176e+00,-7.711664199341729253e-02,-4.070561550545841456e-01,1.274721436561703225e+00,-2.078394349426622156e+00,6.301316590181123001e-01,2.470760166956514681e+00,-2.007532002805779481e+00,-2.060491306562081348e+00,1.125466332904489497e-01,2.285846044040155789e+00,-1.698890622059106015e+00,-5.567994404810563402e-01,1.915133840209207960e+00,3.092028799928351890e-01,-3.470346871846382797e+00,9.808748962218509782e-01,1.649831322060524741e+00,-4.149083932528250807e-01,-4.818318102643138201e-01,-9.057617939175359734e-01,-3.474191161743956258e+00,1.961319013464294159e+00,8.619634377321424568e-01,-4.414129682089847684e+00,-4.316874321173749252e+00,-3.226805118050503740e+00
2.113348906800650795e+00,3.790570448986226859e-01,4.526308500329646045e-01,1.466924057918304269e+00,-8.404969938898484427e-01,-2.716413059808211017e+00,-9.174747454772302913e-01,-2.149557662545620751e+00,2.698232660470140321e+00,-2.913171902892903176e-01,2.940397680970977756e+00,-3.097455964893670366e+00,-6.011024690212786181e-01,-1.393533509182648178e+00,8.286562160416932610e-01,3.266951295544263001e+00,2.016831399504262379e+00,-2.203858741392702214e+00,4.594979456862691158e-01,-4.234016687569986281e+00,1.143402161484708079e+00,5.998556420261916787e-03,1.104603798810035231e+00,2.617949834375306484e+00,1.779123553899222054e+00,1.483458794300330230e-01,7.512560745011070962e-01,-1.110879712217635040e+00,1.761205912235597471e-01
-1.618136781048722161e+00,-2.754485725065385360e-01,1.403790291196705065e+00,-1.844422909050787984e+00,-2.046099649114596186e+00,-1.924314823605184910e-01,-1.149802755570991986e+00,-1.606680370434326210e+00,-1.385439663882595429e+00,-1.333749073555614340e+00,1.421622103796099656e-01,-1.033527591993006700e+00,-2.643068025733972704e+00,-1.098591617079760496e-01,1.718500383997766945e-01,-3.462930768811908422e+00,-1.879178866860000463e+00,7.755117520881616988e-01,3.797683516875392101e-02,-7.350644344801030572e-01,-1.412975469522761429e+00,-5.497759453485168146e-01,-4.213140026410996247e-02,9.874040164987531176e-02,-1.335941807032760220e+00,-2.964547381310223439e+00,-1.100369216569309527e+00,1.307923161462923034e-01,-4.961601037344855469e-01
